network unknown {
}
variable f01 {
    type discrete [ 4 ] { f01_0, f01_1, f01_2, f01_3 };
    property weight = None ;
}
variable f02 {
    type discrete [ 5 ] { f02_0, f02_1, f02_2, f02_3, f02_4 };
    property weight = None ;
}
variable f03 {
    type discrete [ 3 ] { f03_0, f03_1, f03_2 };
    property weight = None ;
}
variable f04 {
    type discrete [ 5 ] { f04_0, f04_1, f04_2, f04_3, f04_4 };
    property weight = None ;
}
variable f05 {
    type discrete [ 4 ] { f05_0, f05_1, f05_2, f05_3 };
    property weight = None ;
}
variable f06 {
    type discrete [ 4 ] { f06_0, f06_1, f06_2, f06_3 };
    property weight = None ;
}
variable f07 {
    type discrete [ 4 ] { f07_0, f07_1, f07_2, f07_3 };
    property weight = None ;
}
variable f08 {
    type discrete [ 5 ] { f08_0, f08_1, f08_2, f08_3, f08_4 };
    property weight = None ;
}
variable f09 {
    type discrete [ 2 ] { f09_0, f09_1 };
    property weight = None ;
}
variable f11 {
    type discrete [ 4 ] { f11_0, f11_1, f11_2, f11_3 };
    property weight = None ;
}
variable f12 {
    type discrete [ 5 ] { f12_0, f12_1, f12_2, f12_3, f12_4 };
    property weight = None ;
}
variable f13 {
    type discrete [ 3 ] { f13_0, f13_1, f13_2 };
    property weight = None ;
}
variable f14 {
    type discrete [ 5 ] { f14_0, f14_1, f14_2, f14_3, f14_4 };
    property weight = None ;
}
variable f15 {
    type discrete [ 4 ] { f15_0, f15_1, f15_2, f15_3 };
    property weight = None ;
}
variable f16 {
    type discrete [ 4 ] { f16_0, f16_1, f16_2, f16_3 };
    property weight = None ;
}
variable f17 {
    type discrete [ 4 ] { f17_0, f17_1, f17_2, f17_3 };
    property weight = None ;
}
variable f18 {
    type discrete [ 5 ] { f18_0, f18_1, f18_2, f18_3, f18_4 };
    property weight = None ;
}
variable f19 {
    type discrete [ 2 ] { f19_0, f19_1 };
    property weight = None ;
}
probability ( f01 | f09 ) {
    table 0.194183864916, 0.108286731063, 0.468105065666, 0.275546517539, 0.251407129456, 0.353329944077, 0.0863039399625, 0.262836807321 ;
}
probability ( f02 | f06, f09 ) {
    table 1.0, 0.333333333333, 0.173076923077, 0.212574850299, 0.110378912685, 0.171657528469, 0.0659340659341, 0.200721153846, 0.0, 0.666666666667, 0.667582417582, 0.612275449102, 0.604612850082, 0.452973428933, 0.791208791209, 0.448317307692, 0.0, 0.0, 0.118131868132, 0.0688622754491, 0.187808896211, 0.170814002531, 0.0, 0.0829326923077, 0.0, 0.0, 0.0, 0.0, 0.0164744645799, 0.0118093631379, 0.0, 0.0192307692308, 0.0, 0.0, 0.0412087912088, 0.10628742515, 0.0807248764415, 0.19274567693, 0.142857142857, 0.248798076923 ;
}
probability ( f03 | f04 ) {
    table 0.0636417206836, 0.140318054256, 0.555125725338, 0.0562148657089, 0.120689655172, 0.92987625221, 0.823199251637, 0.441005802708, 0.913179262961, 0.284482758621, 0.00648202710666, 0.0364826941066, 0.00386847195358, 0.0306058713304, 0.594827586207 ;
}
probability ( f04 ) {
    table 0.3394, 0.2138, 0.1034, 0.3202, 0.0232 ;
}
probability ( f05 | f03, f09 ) {
    table 0.945945945946, 0.111524163569, 0.383369330454, 0.105069124424, 0.344827586207, 0.163120567376, 0.0, 0.0, 0.00215982721382, 0.058064516129, 0.0, 0.0, 0.0540540540541, 0.881040892193, 0.60475161987, 0.830721966206, 0.379310344828, 0.737588652482, 0.0, 0.00743494423792, 0.0097192224622, 0.00614439324117, 0.275862068966, 0.0992907801418 ;
}
probability ( f06 | f03, f09 ) {
    table 0.0, 0.00743494423792, 0.00431965442765, 0.0181259600614, 0.0, 0.0, 0.45045045045, 0.237918215613, 0.328293736501, 0.165898617512, 0.344827586207, 0.0, 0.405405405405, 0.509293680297, 0.598272138229, 0.611674347158, 0.275862068966, 0.751773049645, 0.144144144144, 0.245353159851, 0.0691144708423, 0.204301075269, 0.379310344828, 0.248226950355 ;
}
probability ( f07 | f04, f09 ) {
    table 0.166666666667, 0.477390659748, 0.47197640118, 0.616438356164, 0.078431372549, 0.566265060241, 0.166023166023, 0.511922503726, 0.0, 0.5, 0.520114942529, 0.323943661972, 0.40412979351, 0.231506849315, 0.686274509804, 0.344578313253, 0.420849420849, 0.333830104322, 0.777777777778, 0.19387755102, 0.252873563218, 0.0429948109711, 0.0973451327434, 0.0684931506849, 0.196078431373, 0.0289156626506, 0.351351351351, 0.0305514157973, 0.222222222222, 0.0408163265306, 0.0603448275862, 0.155670867309, 0.0265486725664, 0.0835616438356, 0.0392156862745, 0.0602409638554, 0.0617760617761, 0.123695976155, 0.0, 0.265306122449 ;
}
probability ( f08 | f03, f04 ) {
    table 0.111111111111, 0.0866666666667, 0.254355400697, 0.0333333333333, 0.0, 0.158428390368, 0.157954545455, 0.434210526316, 0.162106703146, 0.0, 0.0, 0.0, 0.0, 0.0, 0.0, 0.12037037037, 0.313333333333, 0.0801393728223, 0.0, 0.0, 0.242712294043, 0.268181818182, 0.232456140351, 0.240082079343, 0.363636363636, 0.454545454545, 0.282051282051, 0.0, 0.163265306122, 0.144927536232, 0.259259259259, 0.42, 0.19512195122, 0.155555555556, 0.0, 0.268060836502, 0.253409090909, 0.0570175438596, 0.229822161423, 0.242424242424, 0.545454545455, 0.307692307692, 0.0, 0.734693877551, 0.463768115942, 0.509259259259, 0.12, 0.306620209059, 0.688888888889, 1.0, 0.183776932826, 0.214772727273, 0.166666666667, 0.191518467852, 0.151515151515, 0.0, 0.410256410256, 1.0, 0.102040816327, 0.246376811594, 0.0, 0.06, 0.163763066202, 0.122222222222, 0.0, 0.147021546261, 0.105681818182, 0.109649122807, 0.176470588235, 0.242424242424, 0.0, 0.0, 0.0, 0.0, 0.144927536232 ;
}
probability ( f09 | f04, f08 ) {
    table 0.141221374046, 0.376558603491, 0.319474835886, 0.0173913043478, 0.0344827586207, 0.296052631579, 0.408163265306, 0.563758389262, 0.0, 0.0588235294118, 0.302325581395, 0.328947368421, 0.173913043478, 0.0, 0.180555555556, 0.125, 0.270194986072, 0.305699481865, 0.014409221902, 0.0334572490706, 0.5, 0.636363636364, 0.1, 0.0, 0.0, 0.858778625954, 0.623441396509, 0.680525164114, 0.982608695652, 0.965517241379, 0.703947368421, 0.591836734694, 0.436241610738, 1.0, 0.941176470588, 0.697674418605, 0.671052631579, 0.826086956522, 1.0, 0.819444444444, 0.875, 0.729805013928, 0.694300518135, 0.985590778098, 0.966542750929, 0.5, 0.363636363636, 0.9, 1.0, 1.0 ;
}
probability ( f11 | f19 ) {
    table 0.202834366696, 0.104365796952, 0.449069973428, 0.256264531129, 0.256864481842, 0.372771893568, 0.0912311780337, 0.266597778352 ;
}
probability ( f12 | f16, f19 ) {
    table 1.0, 0.348484848485, 0.171428571429, 0.212933753943, 0.135135135135, 0.172529313233, 0.12037037037, 0.201787994891, 0.0, 0.651515151515, 0.691428571429, 0.57570977918, 0.587087087087, 0.470686767169, 0.777777777778, 0.457215836526, 0.0, 0.0, 0.108571428571, 0.0820189274448, 0.186186186186, 0.16541038526, 0.0, 0.0919540229885, 0.0, 0.0, 0.0, 0.0, 0.018018018018, 0.0113065326633, 0.0, 0.0140485312899, 0.0, 0.0, 0.0285714285714, 0.129337539432, 0.0735735735736, 0.180067001675, 0.101851851852, 0.234993614304 ;
}
probability ( f13 | f14 ) {
    table 0.0588888888889, 0.135135135135, 0.546906187625, 0.0581162324649, 0.100775193798, 0.938333333333, 0.829450139795, 0.447105788423, 0.913159652639, 0.286821705426, 0.00277777777778, 0.0354147250699, 0.0059880239521, 0.0287241148965, 0.612403100775 ;
}
probability ( f14 ) {
    table 0.36, 0.2146, 0.1002, 0.2994, 0.0258 ;
}
probability ( f15 | f13, f19 ) {
    table 0.941176470588, 0.128458498024, 0.379450661241, 0.10111662531, 0.481481481481, 0.184397163121, 0.0, 0.0, 0.00712105798576, 0.0549007444169, 0.0, 0.0, 0.0588235294118, 0.861660079051, 0.609359104781, 0.839330024814, 0.222222222222, 0.687943262411, 0.0, 0.0098814229249, 0.00406917599186, 0.00465260545906, 0.296296296296, 0.127659574468 ;
}
probability ( f16 | f13, f19 ) {
    table 0.0, 0.0098814229249, 0.00508646998983, 0.0189205955335, 0.0, 0.0, 0.420168067227, 0.250988142292, 0.291963377416, 0.157258064516, 0.481481481481, 0.0, 0.411764705882, 0.53557312253, 0.619532044761, 0.622518610422, 0.296296296296, 0.780141843972, 0.168067226891, 0.203557312253, 0.0834181078332, 0.201302729529, 0.222222222222, 0.219858156028 ;
}
probability ( f17 | f13, f19 ) {
    table 0.294117647059, 0.466403162055, 0.236012207528, 0.543734491315, 0.222222222222, 0.375886524823, 0.655462184874, 0.363636363636, 0.452695829095, 0.30117866005, 0.703703703704, 0.276595744681, 0.0336134453782, 0.0849802371542, 0.265513733469, 0.0375310173697, 0.0, 0.0921985815603, 0.0168067226891, 0.0849802371542, 0.0457782299084, 0.117555831266, 0.0740740740741, 0.255319148936 ;
}
probability ( f18 | f13, f19 ) {
    table 0.243697478992, 0.162055335968, 0.18514750763, 0.168424317618, 0.0, 0.0, 0.310924369748, 0.112648221344, 0.362156663276, 0.206265508685, 0.666666666667, 0.106382978723, 0.394957983193, 0.219367588933, 0.408952187182, 0.210297766749, 0.333333333333, 0.382978723404, 0.0, 0.409090909091, 0.00813835198372, 0.247828784119, 0.0, 0.333333333333, 0.0504201680672, 0.096837944664, 0.0356052899288, 0.167183622829, 0.0, 0.177304964539 ;
}
probability ( f19 | f13, f14 ) {
    table 0.0943396226415, 0.531034482759, 0.0875912408759, 0.0919540229885, 0.0, 0.214920071048, 0.315730337079, 0.34375, 0.188734455011, 0.108108108108, 0.4, 0.342105263158, 0.0, 0.0, 0.151898734177, 0.905660377358, 0.468965517241, 0.912408759124, 0.908045977011, 1.0, 0.785079928952, 0.684269662921, 0.65625, 0.811265544989, 0.891891891892, 0.6, 0.657894736842, 1.0, 1.0, 0.848101265823 ;
}
