network unknown {
}
variable f01 {
    type discrete [ 4 ] { f01_0, f01_1, f01_2, f01_3 };
    property weight = None ;
}
variable f02 {
    type discrete [ 5 ] { f02_0, f02_1, f02_2, f02_3, f02_4 };
    property weight = None ;
}
variable f03 {
    type discrete [ 3 ] { f03_0, f03_1, f03_2 };
    property weight = None ;
}
variable f04 {
    type discrete [ 5 ] { f04_0, f04_1, f04_2, f04_3, f04_4 };
    property weight = None ;
}
variable f05 {
    type discrete [ 4 ] { f05_0, f05_1, f05_2, f05_3 };
    property weight = None ;
}
variable f06 {
    type discrete [ 4 ] { f06_0, f06_1, f06_2, f06_3 };
    property weight = None ;
}
variable f07 {
    type discrete [ 4 ] { f07_0, f07_1, f07_2, f07_3 };
    property weight = None ;
}
variable f08 {
    type discrete [ 5 ] { f08_0, f08_1, f08_2, f08_3, f08_4 };
    property weight = None ;
}
variable f09 {
    type discrete [ 2 ] { f09_0, f09_1 };
    property weight = None ;
}
variable f11 {
    type discrete [ 4 ] { f11_0, f11_1, f11_2, f11_3 };
    property weight = None ;
}
variable f12 {
    type discrete [ 5 ] { f12_0, f12_1, f12_2, f12_3, f12_4 };
    property weight = None ;
}
variable f13 {
    type discrete [ 3 ] { f13_0, f13_1, f13_2 };
    property weight = None ;
}
variable f14 {
    type discrete [ 5 ] { f14_0, f14_1, f14_2, f14_3, f14_4 };
    property weight = None ;
}
variable f15 {
    type discrete [ 4 ] { f15_0, f15_1, f15_2, f15_3 };
    property weight = None ;
}
variable f16 {
    type discrete [ 4 ] { f16_0, f16_1, f16_2, f16_3 };
    property weight = None ;
}
variable f17 {
    type discrete [ 4 ] { f17_0, f17_1, f17_2, f17_3 };
    property weight = None ;
}
variable f18 {
    type discrete [ 5 ] { f18_0, f18_1, f18_2, f18_3, f18_4 };
    property weight = None ;
}
variable f19 {
    type discrete [ 2 ] { f19_0, f19_1 };
    property weight = None ;
}
probability ( f01 | f03, f09 ) {
    table 0.3125, 0.0958904109589, 0.196551724138, 0.0989729225023, 0.0, 0.105263157895, 0.59375, 0.22602739726, 0.424137931034, 0.264239028945, 0.0, 0.157894736842, 0.03125, 0.452054794521, 0.306896551724, 0.358543417367, 0.6, 0.315789473684, 0.0625, 0.22602739726, 0.0724137931034, 0.278244631186, 0.4, 0.421052631579 ;
}
probability ( f02 | f06 ) {
    table 0.52380952381, 0.205521472393, 0.155208333333, 0.181818181818, 0.47619047619, 0.644171779141, 0.496875, 0.48, 0.0, 0.0613496932515, 0.158333333333, 0.08, 0.0, 0.0, 0.0135416666667, 0.0145454545455, 0.0, 0.0889570552147, 0.176041666667, 0.243636363636 ;
}
probability ( f03 | f05 ) {
    table 0.184738955823, 0.0, 0.103312302839, 0.0909090909091, 0.775100401606, 1.0, 0.874605678233, 0.454545454545, 0.0401606425703, 0.0, 0.0220820189274, 0.454545454545 ;
}
probability ( f04 | f03, f09 ) {
    table 0.09375, 0.184931506849, 0.351724137931, 0.40989729225, 0.4, 0.0526315789474, 0.59375, 0.178082191781, 0.293103448276, 0.1802054155, 0.6, 0.184210526316, 0.1875, 0.465753424658, 0.0689655172414, 0.0504201680672, 0.0, 0.0526315789474, 0.125, 0.150684931507, 0.279310344828, 0.34827264239, 0.0, 0.236842105263, 0.0, 0.0205479452055, 0.00689655172414, 0.0112044817927, 0.0, 0.473684210526 ;
}
probability ( f05 ) {
    table 0.157395701643, 0.0341340075853, 0.801517067004, 0.00695322376738 ;
}
probability ( f06 | f09 ) {
    table 0.00305810397554, 0.0159362549801, 0.318042813456, 0.176892430279, 0.599388379205, 0.608764940239, 0.0795107033639, 0.198406374502 ;
}
probability ( f07 | f04, f09 ) {
    table 0.242990654206, 0.5, 0.514018691589, 0.610619469027, 0.0769230769231, 0.564516129032, 0.129411764706, 0.544554455446, 0.0, 0.575757575758, 0.485981308411, 0.352564102564, 0.401869158879, 0.234513274336, 0.730769230769, 0.338709677419, 0.517647058824, 0.316831683168, 0.0, 0.0606060606061, 0.214953271028, 0.0384615384615, 0.0467289719626, 0.0663716814159, 0.115384615385, 0.0322580645161, 0.294117647059, 0.029702970297, 1.0, 0.0606060606061, 0.0560747663551, 0.108974358974, 0.0373831775701, 0.0884955752212, 0.0769230769231, 0.0645161290323, 0.0588235294118, 0.108910891089, 0.0, 0.30303030303 ;
}
probability ( f08 | f03, f09 ) {
    table 0.125, 0.109589041096, 0.158620689655, 0.18487394958, 0.0, 0.0, 0.34375, 0.123287671233, 0.403448275862, 0.211951447246, 0.6, 0.0789473684211, 0.4375, 0.22602739726, 0.396551724138, 0.196078431373, 0.4, 0.447368421053, 0.0, 0.465753424658, 0.0103448275862, 0.241830065359, 0.0, 0.289473684211, 0.09375, 0.0753424657534, 0.0310344827586, 0.165266106443, 0.0, 0.184210526316 ;
}
probability ( f09 | f03, f05 ) {
    table 0.652173913043, 0.5, 0.0152671755725, 0.0, 0.487046632124, 0.037037037037, 0.174030658251, 0.2, 0.3, 0.5, 0.0714285714286, 0.0, 0.347826086957, 0.5, 0.984732824427, 1.0, 0.512953367876, 0.962962962963, 0.825969341749, 0.8, 0.7, 0.5, 0.928571428571, 1.0 ;
}
probability ( f11 | f13, f19 ) {
    table 0.3125, 0.0958904109589, 0.196551724138, 0.0989729225023, 0.0, 0.105263157895, 0.59375, 0.22602739726, 0.424137931034, 0.264239028945, 0.0, 0.157894736842, 0.03125, 0.452054794521, 0.306896551724, 0.358543417367, 0.6, 0.315789473684, 0.0625, 0.22602739726, 0.0724137931034, 0.278244631186, 0.4, 0.421052631579 ;
}
probability ( f12 | f16 ) {
    table 0.52380952381, 0.205521472393, 0.155208333333, 0.181818181818, 0.47619047619, 0.644171779141, 0.496875, 0.48, 0.0, 0.0613496932515, 0.158333333333, 0.08, 0.0, 0.0, 0.0135416666667, 0.0145454545455, 0.0, 0.0889570552147, 0.176041666667, 0.243636363636 ;
}
probability ( f13 | f15 ) {
    table 0.184738955823, 0.0, 0.103312302839, 0.0909090909091, 0.775100401606, 1.0, 0.874605678233, 0.454545454545, 0.0401606425703, 0.0, 0.0220820189274, 0.454545454545 ;
}
probability ( f14 | f13, f19 ) {
    table 0.09375, 0.184931506849, 0.351724137931, 0.40989729225, 0.4, 0.0526315789474, 0.59375, 0.178082191781, 0.293103448276, 0.1802054155, 0.6, 0.184210526316, 0.1875, 0.465753424658, 0.0689655172414, 0.0504201680672, 0.0, 0.0526315789474, 0.125, 0.150684931507, 0.279310344828, 0.34827264239, 0.0, 0.236842105263, 0.0, 0.0205479452055, 0.00689655172414, 0.0112044817927, 0.0, 0.473684210526 ;
}
probability ( f15 | f03 ) {
    table 0.275280898876, 0.140337986774, 0.209302325581, 0.0337078651685, 0.0337986774431, 0.046511627907, 0.662921348315, 0.821454812638, 0.744186046512, 0.0280898876404, 0.00440852314475, 0.0 ;
}
probability ( f16 | f19 ) {
    table 0.00305810397554, 0.0159362549801, 0.318042813456, 0.176892430279, 0.599388379205, 0.608764940239, 0.0795107033639, 0.198406374502 ;
}
probability ( f17 | f14, f19 ) {
    table 0.242990654206, 0.5, 0.514018691589, 0.610619469027, 0.0769230769231, 0.564516129032, 0.129411764706, 0.544554455446, 0.0, 0.575757575758, 0.485981308411, 0.352564102564, 0.401869158879, 0.234513274336, 0.730769230769, 0.338709677419, 0.517647058824, 0.316831683168, 0.0, 0.0606060606061, 0.214953271028, 0.0384615384615, 0.0467289719626, 0.0663716814159, 0.115384615385, 0.0322580645161, 0.294117647059, 0.029702970297, 1.0, 0.0606060606061, 0.0560747663551, 0.108974358974, 0.0373831775701, 0.0884955752212, 0.0769230769231, 0.0645161290323, 0.0588235294118, 0.108910891089, 0.0, 0.30303030303 ;
}
probability ( f18 | f13, f19 ) {
    table 0.125, 0.109589041096, 0.158620689655, 0.18487394958, 0.0, 0.0, 0.34375, 0.123287671233, 0.403448275862, 0.211951447246, 0.6, 0.0789473684211, 0.4375, 0.22602739726, 0.396551724138, 0.196078431373, 0.4, 0.447368421053, 0.0, 0.465753424658, 0.0103448275862, 0.241830065359, 0.0, 0.289473684211, 0.09375, 0.0753424657534, 0.0310344827586, 0.165266106443, 0.0, 0.184210526316 ;
}
probability ( f19 | f13, f15 ) {
    table 0.652173913043, 0.5, 0.0152671755725, 0.0, 0.487046632124, 0.037037037037, 0.174030658251, 0.2, 0.3, 0.5, 0.0714285714286, 0.0, 0.347826086957, 0.5, 0.984732824427, 1.0, 0.512953367876, 0.962962962963, 0.825969341749, 0.8, 0.7, 0.5, 0.928571428571, 1.0 ;
}
